/*!
 * The following copyright notice may not be removed under any circumstances.
 * 
 * Copyright:
 * Copyright (c) 2007 by GreyscaleNet. All rights reserved.
 * 
 * Trademark:
 * GreyscaleBasic is a trademark of GreyscaleNet.
 * 
 * Description:
 * Copyright (c) 2007 by GreyscaleNet. All rights reserved.
 * 
 * Manufacturer:
 * GreyscaleNet
 * 
 * Designer:
 * Greyscale
 */
Cufon.registerFont({"w":481,"face":{"font-family":"GreyscaleBasic","font-weight":400,"font-stretch":"normal","units-per-em":"1000","panose-1":"0 0 0 0 0 0 0 0 0 0","ascent":"750","descent":"-250","bbox":"-38.25 -944 913.375 179.298","underline-thickness":"50","underline-position":"-50","unicode-range":"U+0020-U+2122"},"glyphs":{" ":{"w":270},"\u00a0":{"w":270},"!":{"d":"46,-25v0,-14,13,-25,27,-25v14,0,25,11,25,25v0,14,-11,25,-25,25v-14,0,-27,-11,-27,-25xm46,-731v0,-14,13,-25,27,-25v14,0,25,11,25,25r0,494v0,14,-11,26,-25,26v-14,0,-27,-12,-27,-26r0,-494","w":150},"\"":{"d":"25,-740v0,-10,9,-18,18,-18v10,0,20,8,20,18r0,74v0,10,-10,18,-20,18v-9,0,-18,-8,-18,-18r0,-74xm95,-740v0,-10,9,-18,18,-18v10,0,20,8,20,18r0,74v0,10,-10,18,-20,18v-9,0,-18,-8,-18,-18r0,-74","w":161},"#":{"d":"421,-475v0,14,-11,26,-25,26r-35,0r0,143v28,0,60,-4,60,24v0,34,-30,28,-60,28r0,42v0,11,-13,24,-26,24v-13,0,-25,-13,-25,-24r0,-42r-155,0r0,42v0,11,-13,25,-26,24v-29,0,-24,-36,-24,-66v-30,-1,-61,7,-61,-28v0,-30,33,-24,61,-24r0,-143r-38,0v-15,0,-23,-12,-23,-26v-2,-30,33,-24,61,-24v0,-30,-6,-69,24,-69v14,0,26,13,26,27r0,42r155,0v0,-31,-5,-69,25,-69v14,0,26,13,26,27r0,42v28,0,61,-4,60,24xm310,-449r-155,0r0,143r155,0r0,-143","w":465},"$":{"d":"402,-649v0,13,-12,24,-25,24r-124,0r0,222v14,17,34,28,50,41r74,66v20,21,34,48,35,84v0,67,-56,113,-114,114r-45,0r0,71v0,14,-10,24,-24,24v-37,-1,-19,-60,-23,-95r-143,0v-14,1,-25,-11,-25,-23v0,-14,11,-27,25,-27r143,0r0,-229r-114,-100r0,-2v-19,-20,-37,-48,-37,-84v0,-79,59,-122,151,-115v2,-31,-9,-77,23,-77v33,-1,22,45,24,77r124,0v14,0,26,14,25,29xm206,-625v-55,-6,-100,13,-100,62v0,48,51,68,76,98v8,6,13,14,24,20r0,-180xm253,-148v35,0,72,4,89,-16v14,-18,25,-44,14,-72v-10,-26,-33,-38,-54,-56r-42,-37r-7,-5r0,186","w":445},"&":{"d":"380,-667v27,59,5,137,-36,167v0,2,0,2,-2,2r-86,72r176,226r78,-94v14,-18,45,-9,46,14v0,8,-1,14,-6,20r-84,103r84,112v20,27,-20,57,-40,30r-78,-104v-42,57,-97,114,-190,114v-97,0,-160,-58,-191,-129v-23,-55,-20,-119,5,-171v28,-58,85,-91,131,-131r-64,-84v-47,-54,-31,-152,13,-194v35,-33,106,-58,164,-32v36,15,64,43,80,79xm226,-468r84,-68v24,-23,42,-68,24,-110v-18,-42,-74,-75,-130,-52v-33,14,-58,44,-59,89v0,22,7,42,20,59xm147,-336v-50,31,-78,115,-47,184v24,53,69,95,142,95v55,0,96,-29,124,-62r34,-40r-183,-235r-70,56r0,2","w":573},"'":{"d":"43,-740v0,-10,9,-18,18,-18v10,0,20,8,20,18r0,74v0,10,-10,18,-20,18v-9,0,-18,-8,-18,-18r0,-74","w":117},"(":{"d":"263,-741v0,14,-12,25,-26,25v-60,2,-97,34,-116,78v-7,16,-10,33,-10,50r0,420v2,59,35,97,77,118v26,13,75,-1,75,35v0,42,-67,23,-95,11v-61,-27,-108,-80,-108,-164r0,-420v2,-83,48,-137,108,-164v21,-9,44,-14,69,-14v14,0,26,11,26,25","w":281},")":{"d":"18,-741v0,-15,10,-25,25,-25v84,2,137,47,164,108v9,22,14,45,14,70r0,420v-2,84,-48,137,-109,164v-22,9,-44,14,-69,14v-15,0,-25,-10,-25,-25v0,-15,10,-25,25,-25v60,-2,97,-34,116,-78v7,-16,10,-33,10,-50r0,-420v-2,-59,-34,-99,-77,-118v-15,-7,-32,-10,-49,-10v-15,0,-25,-10,-25,-25","w":283},"*":{"d":"172,-755v12,0,25,12,24,25r0,68r67,-42v26,-17,50,24,27,39r-73,44r73,41v12,10,14,21,5,32v-4,14,-18,16,-32,8r-67,-43r0,72v1,12,-13,20,-24,20v-12,0,-23,-8,-23,-20r0,-72r-71,43v-12,8,-24,5,-29,-8v-9,-11,-8,-24,6,-32r72,-41r-72,-44v-19,-8,-9,-37,6,-42v5,-2,11,-1,17,3r71,42r0,-68v-1,-14,11,-25,23,-25","w":348},"+":{"d":"222,-585v14,0,25,11,25,25r0,157r155,0v15,0,27,10,27,25v0,15,-12,25,-27,25r-155,0r0,156v0,14,-11,26,-25,26v-14,0,-26,-12,-26,-26r0,-156r-156,0v-14,0,-26,-11,-26,-25v0,-14,12,-25,26,-25r156,0r0,-157v0,-14,12,-25,26,-25","w":453},",":{"d":"56,-32v0,-10,9,-18,18,-18v10,0,20,8,20,18r0,94v0,10,-10,18,-20,18v-9,0,-18,-8,-18,-18r0,-94","w":151},"-":{"d":"49,-378v0,-14,13,-25,27,-25r265,0v12,0,25,11,25,25v0,14,-13,25,-25,25r-265,0v-14,0,-27,-11,-27,-25","w":423},".":{"d":"50,-21v0,-17,12,-29,29,-29v17,0,30,12,30,29v0,17,-13,29,-30,29v-17,0,-29,-12,-29,-29","w":165},"\/":{"d":"387,-742v6,-23,44,-14,47,4v2,7,2,14,-1,20r-363,705v-5,10,-20,18,-35,12v-10,-4,-18,-21,-11,-35","w":452},"0":{"d":"225,-735v64,-28,146,-28,210,0v92,41,165,122,165,249r0,217v-3,127,-73,207,-165,248v-64,28,-146,28,-210,0v-92,-41,-165,-121,-165,-248r0,-217v4,-126,73,-208,165,-249xm169,-634v-33,35,-57,85,-57,148r0,217v3,103,60,169,134,202v47,21,107,23,156,4v23,-9,44,-20,63,-35xm502,-134v28,-35,46,-78,47,-135r0,-217v-2,-104,-59,-169,-134,-203v-67,-30,-160,-16,-205,21","w":660},"1":{"d":"2,-731v0,-39,62,-22,100,-25v14,-1,25,11,25,25r0,706v0,14,-11,25,-25,25v-14,0,-25,-11,-25,-25r0,-681v-32,-1,-75,7,-75,-25","w":207},"2":{"d":"343,-756v88,4,145,57,145,146v0,36,-13,65,-30,88r-354,472r364,0v15,0,28,10,27,25v0,14,-13,25,-27,25r-416,0v-22,2,-35,-23,-21,-41r387,-513r1,0v47,-62,-4,-152,-76,-152r-286,0v-12,0,-25,-11,-25,-25v0,-14,13,-25,25,-25r286,0","w":525},"3":{"d":"6,-729v0,-15,11,-27,26,-27r254,0v76,2,125,46,151,101v18,38,13,88,13,140v0,62,-34,112,-75,137v41,26,75,75,75,139v0,52,5,101,-13,139v-26,55,-75,100,-151,100r-254,0v-14,0,-26,-11,-26,-25v0,-14,12,-25,26,-25r254,0v53,-1,86,-32,103,-70v15,-31,8,-76,9,-119v2,-59,-43,-112,-97,-112r-204,0v-16,0,-25,-11,-25,-27v0,-17,8,-25,25,-25r204,0v52,-8,98,-53,97,-112v-1,-43,6,-90,-9,-121v-17,-38,-51,-68,-103,-68r-254,0v-13,1,-26,-13,-26,-25","w":516},"4":{"d":"386,-756v31,0,70,-7,69,25r0,478v26,-2,49,2,49,26v0,22,-23,28,-49,25r0,177v0,14,-11,25,-25,25v-14,0,-25,-11,-25,-25r0,-177r-283,0v-54,-2,-88,-32,-106,-71v-24,-52,2,-111,33,-141r0,-2r318,-332v5,-5,12,-8,19,-8xm66,-349v-26,45,11,96,56,96r283,0r0,-453r-9,0r-309,325v-9,10,-15,21,-21,32","w":556},"5":{"d":"88,-546v0,56,44,94,96,94v74,0,155,-10,210,14v61,27,110,80,110,164v0,61,7,122,-14,166v-29,60,-82,108,-166,108r-261,0v-13,0,-26,-11,-26,-25v0,-14,13,-25,26,-25r261,0v77,-4,128,-51,128,-128v0,-51,7,-107,-10,-145v-19,-43,-59,-77,-118,-77r-145,0r-2,-2v-39,-1,-72,-14,-98,-40v-29,-30,-43,-65,-43,-104r0,-125v1,-47,34,-84,85,-85r352,0v14,0,25,11,25,25v0,14,-11,25,-25,25r-352,0v-20,-1,-33,22,-33,35r0,125","w":538},"6":{"d":"519,-552v-14,0,-25,-12,-25,-26v-2,-60,-35,-99,-78,-118v-44,-19,-109,-10,-167,-10v-77,0,-127,52,-127,128r0,130v34,-35,76,-53,127,-53v72,0,151,-10,205,14v61,27,109,80,109,164v0,75,10,159,-14,215v-27,61,-80,108,-164,108v-72,0,-151,10,-205,-14v-61,-27,-110,-80,-110,-164r0,-400v2,-84,49,-137,110,-164v49,-23,120,-14,187,-14v84,0,138,47,165,108v9,22,14,45,14,70v0,14,-13,26,-27,26xm511,-323v-2,-59,-34,-99,-77,-118v-15,-7,-32,-10,-49,-10v-63,3,-136,-10,-185,10v-44,18,-78,58,-78,118r0,145v4,76,50,128,127,128v63,0,137,10,185,-10v44,-18,77,-59,77,-118r0,-145","w":623},"7":{"d":"6,-731v0,-14,12,-25,25,-25r305,0v84,-1,150,84,115,167r-244,574v-3,22,-42,19,-47,0v-2,-6,-2,-13,1,-20r241,-574v9,-28,4,-57,-15,-76v-14,-14,-32,-19,-51,-19r-305,-2v-13,0,-25,-11,-25,-25","w":484},"8":{"d":"508,-550v0,52,-25,91,-56,116v53,26,98,84,98,158v0,61,6,123,-14,168v-28,61,-81,108,-165,108v-72,0,-152,10,-205,-14v-60,-27,-108,-80,-108,-164r0,-98v0,-74,45,-133,98,-158v-31,-25,-56,-64,-56,-116v1,-44,-3,-83,12,-115v23,-51,67,-91,137,-91v59,0,124,-8,168,12v50,22,89,67,91,136r0,58xm151,-608v-1,52,-1,100,29,126v17,15,39,30,69,30v51,0,111,9,149,-8v33,-15,60,-44,60,-90v0,-35,5,-71,-8,-96v-16,-33,-44,-60,-90,-60v-68,0,-145,-11,-180,30v-15,17,-29,38,-29,68xm499,-178v0,-52,7,-108,-10,-146v-19,-43,-58,-78,-118,-78v-63,0,-137,-10,-185,10v-43,18,-77,58,-77,116v0,52,-7,109,10,148v19,44,56,78,116,78v64,0,136,10,185,-10v44,-18,79,-58,79,-118","w":608},"9":{"d":"500,-353v-27,32,-71,53,-126,53v-72,0,-152,10,-206,-14v-61,-27,-108,-79,-108,-163v0,-62,-7,-126,14,-171v28,-61,80,-108,164,-108v72,0,152,-10,206,14v61,27,108,80,108,164r0,400v-2,84,-47,137,-108,164v-50,23,-122,14,-189,14v-84,0,-137,-47,-164,-108v-9,-22,-14,-45,-14,-70v0,-15,12,-25,27,-25v14,0,25,11,25,25v2,59,34,99,77,118v44,19,110,10,168,10v60,0,97,-34,116,-78v7,-16,10,-33,10,-50r0,-175xm500,-477v0,-53,7,-111,-10,-151v-19,-44,-56,-78,-116,-78v-63,0,-137,-10,-185,10v-44,18,-77,59,-77,118v0,53,-7,111,10,150v19,43,57,77,116,77v63,0,137,10,185,-10v43,-18,77,-57,77,-116","w":622},":":{"d":"68,-202v0,-14,11,-25,25,-25v14,0,26,11,26,25v0,14,-12,26,-26,26v-14,0,-25,-12,-25,-26xm68,-378v0,-14,11,-25,25,-25v14,0,26,11,26,25v0,14,-12,25,-26,25v-14,0,-25,-11,-25,-25","w":187},";":{"d":"68,-378v0,-14,11,-25,25,-25v14,0,27,11,27,25v0,14,-13,25,-27,25v-14,0,-25,-11,-25,-25xm75,-239v0,-10,9,-18,18,-18v10,0,20,8,20,18r0,104v0,10,-10,18,-20,18v-9,0,-18,-8,-18,-18r0,-104","w":186},"<":{"d":"228,-574v17,-14,45,2,41,22v-1,7,-5,13,-10,17r-186,157r186,157v18,14,9,43,-13,45v-7,1,-12,-1,-18,-6r-213,-176v-12,-14,-13,-29,0,-40","w":332},"=":{"d":"74,-466v0,-14,13,-25,27,-25r279,0v12,0,25,11,25,25v0,14,-13,25,-25,25r-279,0v-14,0,-27,-11,-27,-25xm74,-378v0,-14,13,-25,27,-25r279,0v12,0,25,11,25,25v0,14,-13,25,-25,25r-279,0v-14,0,-27,-11,-27,-25","w":479},">":{"d":"317,-398v9,10,11,31,0,40r-213,176v-16,17,-45,-1,-42,-21v1,-7,5,-13,10,-18r186,-157r-186,-157v-19,-12,-6,-45,14,-44v7,-1,13,1,18,5","w":331},"?":{"d":"84,-25v0,-15,12,-25,27,-25v12,0,25,11,25,25v0,14,-13,25,-25,25v-15,0,-27,-10,-27,-25xm6,-731v0,-14,11,-25,25,-25r199,0v84,2,137,47,164,108v19,43,19,97,0,140v-27,61,-80,106,-164,108v-53,1,-94,39,-94,95r0,61v1,14,-12,27,-25,27v-16,0,-27,-11,-27,-27r0,-61v1,-86,66,-146,146,-147v59,-1,99,-34,117,-77v31,-74,-12,-146,-68,-167v-15,-7,-32,-10,-49,-10r-199,0v-14,0,-25,-11,-25,-25","w":414},"@":{"d":"91,-178v-15,0,-25,-11,-25,-26r0,-345v4,-126,72,-207,164,-248v72,-32,167,-21,267,-21v127,0,210,74,250,166v23,52,20,110,20,180r0,311v0,13,-11,25,-25,25v-14,0,-27,-12,-27,-25r0,-388v-2,-101,-60,-170,-134,-201v-65,-27,-158,-16,-245,-16v-103,0,-170,58,-203,132v-11,26,-17,55,-17,85r0,345v0,14,-11,26,-25,26xm66,-204v0,15,10,26,25,26v14,0,25,-12,25,-26v3,103,60,168,134,202v64,29,156,13,241,16v34,1,64,-28,63,-62r0,-84v-26,7,-55,3,-85,3r-122,0v-62,0,-115,-48,-115,-115v0,-47,-7,-97,9,-132v18,-38,53,-69,106,-69r146,0v26,0,44,6,61,18r0,-83v0,-30,-28,-60,-63,-60r-171,0r0,39v0,14,-12,26,-26,26v-13,0,-26,-12,-25,-26r0,-65v-1,-14,12,-26,25,-26r197,0v62,1,113,45,114,112r0,462v-3,69,-45,114,-114,114v-94,0,-191,12,-261,-20v-92,-43,-160,-122,-164,-250xm347,-393v-34,-1,-65,26,-63,60v3,51,-12,106,18,134v14,13,29,18,45,18r189,0v13,0,18,-10,18,-25r0,-129v0,-32,-28,-59,-61,-58r-146,0","w":823},"A":{"d":"653,-34v5,22,-14,41,-37,32v-6,-3,-10,-9,-12,-16r-81,-231r-355,0r-79,231v-4,21,-41,25,-49,4v-3,-6,-3,-13,0,-20r242,-705v5,-12,13,-18,24,-18r78,0v13,0,20,6,24,18xm506,-301r-140,-405r-41,0r-140,405r321,0","w":690},"B":{"d":"528,-580v3,67,-25,112,-60,145v74,24,130,78,130,172v0,57,5,113,-14,155v-28,61,-80,108,-164,108r-317,0v-15,0,-27,-10,-27,-25r0,-706v0,-15,12,-26,27,-26r247,0v83,2,137,48,164,108v9,21,14,44,14,69xm439,-478v31,-28,50,-98,27,-151v-19,-43,-57,-77,-116,-77r-222,0r0,265r222,0v38,0,68,-18,89,-37xm548,-178v-2,-48,6,-98,-10,-134v-19,-44,-58,-79,-118,-79r-292,0r0,339r292,0v59,-2,99,-34,118,-77v7,-15,10,-32,10,-49","w":650},"C":{"d":"488,-731v0,14,-12,25,-26,25v-80,3,-162,-10,-221,17v-75,34,-134,99,-134,202r0,217v-3,91,63,171,135,202v59,25,142,13,221,16v14,0,25,13,25,27v0,14,-11,25,-25,25v-88,-2,-175,9,-241,-20v-93,-40,-166,-124,-166,-250r0,-217v3,-127,72,-207,164,-249v66,-30,153,-19,242,-21v14,0,26,12,26,26","w":500},"D":{"d":"76,-731v0,-14,11,-26,25,-26r214,0v127,3,208,73,249,165v14,33,22,68,22,105r0,217v-4,127,-74,206,-166,248v-33,14,-68,22,-105,22r-214,0v-14,0,-25,-11,-25,-25r0,-706xm534,-487v-1,-66,-29,-118,-65,-154v-37,-37,-86,-64,-154,-65r-189,0r0,654r189,0v103,-3,169,-60,202,-134v11,-26,17,-54,17,-84r0,-217","w":644},"E":{"d":"550,-731v0,14,-12,25,-26,25r-398,0r0,266r351,0v14,0,26,12,26,26v0,14,-12,26,-26,26r-351,0r0,336r398,0v14,0,26,13,26,27v0,14,-12,25,-26,25r-423,0v-14,0,-25,-11,-25,-25r0,-706v0,-14,11,-26,25,-26r423,0v14,0,26,12,26,26","w":554},"F":{"d":"76,-731v-1,-14,12,-26,25,-26r424,0v14,0,25,12,25,26v0,14,-11,25,-25,25r-397,0r0,266r350,0v14,0,25,12,25,26v0,14,-11,26,-25,26r-350,0r0,363v0,14,-13,25,-27,25v-13,0,-26,-11,-25,-25r0,-706","w":550},"G":{"d":"431,-378v0,-14,11,-27,25,-27r118,0v13,0,28,12,27,27v-1,81,7,154,-21,213v-43,91,-123,165,-250,165v-127,0,-206,-74,-248,-165v-14,-33,-22,-68,-22,-105r0,-217v4,-126,73,-209,165,-249v80,-35,178,-26,247,18v42,26,75,63,98,108v11,20,-7,43,-30,36v-7,-2,-12,-6,-15,-13v-34,-67,-102,-119,-195,-119v-103,0,-168,60,-201,134v-11,27,-17,55,-17,85r0,217v3,102,60,168,134,201v52,23,117,23,169,0v75,-33,131,-98,134,-201r0,-83r-93,0v-14,0,-25,-11,-25,-25","w":651},"H":{"d":"568,-731v0,-14,11,-26,25,-26v14,0,25,12,25,26r0,706v0,14,-11,25,-25,25v-14,0,-25,-11,-25,-25r0,-367r-440,0r0,367v0,14,-12,25,-26,25v-14,0,-26,-11,-26,-25r0,-706v0,-14,12,-26,26,-26v14,0,26,12,26,26r0,287r440,0r0,-287","w":694},"I":{"d":"76,-731v0,-14,12,-26,26,-26v14,0,26,12,26,26r0,706v0,14,-12,25,-26,25v-14,0,-26,-11,-26,-25r0,-706","w":214},"J":{"d":"245,-731v0,-14,11,-26,25,-26v14,0,25,12,25,26r0,461v-3,127,-73,206,-164,248v-33,14,-68,22,-105,22v-14,0,-26,-11,-26,-25v0,-14,12,-27,26,-27v103,-3,169,-60,202,-134v11,-26,17,-54,17,-84r0,-461","w":357},"K":{"d":"101,-757v15,0,27,11,27,26r0,291r150,0r282,-309v15,-18,47,-3,46,17v0,7,-3,13,-8,18r-277,302r269,371v11,19,-3,45,-26,41v-7,-1,-14,-4,-18,-10r-270,-378r-148,0r0,363v0,15,-12,25,-27,25v-14,0,-25,-11,-25,-25r0,-706v0,-14,11,-26,25,-26","w":666},"L":{"d":"103,-757v14,0,25,12,25,26r0,679r389,0v14,0,27,13,27,27v0,14,-13,25,-27,25r-414,0v-15,0,-27,-10,-27,-25r0,-706v0,-15,12,-26,27,-26","w":544},"M":{"d":"76,-731v0,-14,11,-27,25,-26v29,2,67,-9,81,11r233,322r205,-321v14,-21,52,-10,82,-12v14,-1,26,12,26,26r0,706v0,14,-12,25,-26,25v-14,0,-26,-11,-26,-25r0,-681r-19,0r-220,341v-10,16,-32,16,-42,2r-248,-343r-19,0r0,681v0,14,-13,25,-27,25v-14,0,-25,-11,-25,-25r0,-706","w":804},"N":{"d":"559,-731v0,-14,12,-26,26,-26v14,0,26,12,26,26r0,706v0,37,-54,22,-89,25v-11,0,-18,-5,-23,-14r-351,-692r-20,0r0,681v0,14,-12,25,-26,25v-14,0,-26,-11,-26,-25r0,-706v0,-14,12,-27,26,-26v31,3,73,-10,85,14r350,691r22,0r0,-679","w":687},"O":{"d":"224,-736v64,-28,145,-28,210,-1v93,39,166,123,166,250r0,217v-3,127,-74,206,-165,248v-64,29,-146,29,-211,0v-92,-42,-164,-121,-164,-248r0,-217v3,-127,72,-208,164,-249xm549,-487v-1,-66,-30,-116,-65,-154v-50,-53,-153,-85,-238,-48v-74,33,-134,99,-134,202r0,217v3,102,60,168,134,201v52,23,117,23,169,0v75,-33,134,-98,134,-201r0,-217","w":660},"P":{"d":"76,-731v0,-15,13,-27,28,-26r236,0v103,3,170,60,204,135v23,52,23,120,0,172v-34,75,-100,134,-204,134r-212,0r0,291v0,14,-11,25,-25,25v-14,0,-27,-11,-27,-25r0,-706xm340,-367v79,-2,130,-46,156,-103v31,-67,1,-151,-37,-186v-29,-26,-67,-50,-119,-50r-212,0r0,339r212,0","w":569},"Q":{"d":"600,-270v0,71,-28,129,-62,172r56,55v18,15,2,44,-19,43v-7,0,-13,-3,-18,-8r-55,-55v-60,56,-183,84,-277,41v-92,-42,-165,-120,-165,-248r0,-217v3,-127,73,-208,165,-249v64,-28,144,-28,209,-1v93,39,166,123,166,250r0,217xm111,-270v3,103,60,168,134,201v52,23,117,23,169,0v74,-33,134,-98,134,-201r0,-217v-1,-66,-28,-117,-64,-154v-60,-61,-151,-85,-239,-48v-76,32,-134,99,-134,202r0,217","w":668},"R":{"d":"76,-731v0,-15,11,-26,27,-26r235,0v104,3,170,60,204,135v36,77,8,179,-34,226v-31,34,-73,66,-125,77r176,280v11,19,-5,44,-27,39v-7,-2,-12,-7,-16,-13r-192,-303r-198,0r0,291v0,14,-11,25,-25,25v-14,0,-25,-11,-25,-25r0,-706xm126,-367r212,0v79,-2,130,-46,156,-103v30,-67,2,-151,-36,-186v-29,-26,-68,-50,-120,-50r-212,0r0,339","w":623},"S":{"d":"499,-731v0,14,-11,25,-25,25r-293,0v-50,-2,-94,44,-94,94v0,26,8,49,28,67r332,294v41,31,61,105,35,163v-22,49,-66,88,-134,88r-293,0v-14,1,-25,-13,-25,-25v0,-14,11,-27,25,-27r293,0v52,1,94,-43,93,-94v0,-27,-9,-50,-28,-67r-333,-294v-25,-24,-45,-61,-45,-105v0,-86,67,-145,146,-145r293,0v14,0,25,11,25,26","w":526},"T":{"d":"18,-731v0,-14,12,-26,26,-26r450,0v14,0,25,12,25,26v0,14,-11,25,-25,25r-198,0r0,681v0,14,-12,25,-26,25v-14,0,-25,-11,-25,-25r0,-681r-201,0v-14,0,-26,-11,-26,-25","w":537},"U":{"d":"558,-731v0,-14,11,-26,25,-26v14,0,25,12,25,26r0,461v-3,127,-72,207,-164,248v-65,29,-147,29,-211,0v-92,-42,-165,-121,-165,-248r0,-461v0,-14,12,-26,26,-26v14,0,26,12,26,26r0,461v3,102,60,168,134,201v52,23,117,23,169,0v75,-33,135,-98,135,-201r0,-461","w":676},"V":{"d":"602,-741v12,-30,59,-13,48,19r-255,705v-8,27,-47,17,-78,17v-12,0,-20,-6,-25,-17r-254,-705v-11,-32,38,-49,49,-19r248,689r17,0","w":689},"W":{"d":"862,-738v3,-19,39,-26,48,-7v3,6,4,13,3,20r-174,705v-5,28,-48,18,-80,20v-13,0,-22,-7,-25,-20r-146,-603r-152,603v-8,31,-48,20,-81,20v-13,0,-21,-7,-24,-20r-175,-705v-7,-23,18,-40,38,-28v6,4,10,9,11,15r171,686r15,0r174,-686v1,-26,44,-23,49,0r165,686r15,0","w":966},"X":{"d":"601,-41v12,20,-4,46,-27,41v-7,-2,-13,-5,-17,-11r-222,-324r-223,324v-10,18,-45,12,-46,-10v-1,-7,-1,-14,3,-20r235,-338r-233,-338v-14,-18,1,-45,25,-39v7,1,13,5,17,10r222,320r222,-320v9,-17,45,-12,45,10v0,7,0,14,-3,19r-234,338","w":670},"Y":{"d":"298,0v-14,0,-26,-11,-26,-25r0,-347r-6,-7r-232,-338v-15,-17,2,-46,25,-39v7,1,13,4,17,10r221,320r223,-320v9,-17,46,-12,46,10v0,7,-1,14,-4,19r-238,345r0,347v0,14,-12,25,-26,25","w":593},"Z":{"d":"490,-757v13,0,26,12,25,26v-1,22,6,52,-4,66r-433,605r0,8r412,0v14,0,25,13,25,27v0,14,-11,25,-25,25r-438,0v-11,1,-27,-13,-26,-25v1,-21,-3,-45,6,-59r431,-605r0,-17r-411,0v-13,0,-26,-11,-26,-25v0,-14,13,-26,26,-26r438,0","w":545},"[":{"d":"270,-741v0,36,-50,25,-84,25v-35,0,-65,32,-65,68r0,542v-1,35,31,66,65,66v34,0,84,-11,84,25v0,36,-50,25,-84,25v-70,0,-116,-46,-116,-116r0,-542v3,-71,45,-118,116,-118v34,0,84,-11,84,25","w":293},"\\":{"d":"303,-34v9,23,-16,42,-36,32v-6,-3,-12,-8,-14,-16r-242,-755v-4,-21,14,-43,37,-31v6,3,11,8,12,14","w":319},"]":{"d":"21,-741v0,-36,51,-25,85,-25v71,0,116,47,116,118r0,542v-4,70,-46,116,-116,116v-35,0,-85,11,-85,-25v0,-36,51,-25,85,-25v36,0,67,-31,66,-66r0,-542v1,-37,-29,-68,-66,-68v-35,0,-85,11,-85,-25","w":294},"^":{"d":"423,-530v14,17,-3,45,-23,41v-7,-1,-12,-5,-16,-10r-157,-186r-157,186v-14,18,-44,9,-46,-13v-1,-7,2,-12,7,-18r176,-213v14,-12,29,-13,40,0","w":452},"_":{"d":"72,-25v0,-14,12,-25,26,-25r279,0v12,0,25,11,25,25v0,14,-13,25,-25,25r-279,0v-14,0,-26,-11,-26,-25","w":474},"`":{"d":"165,-848v17,15,2,44,-19,44v-7,0,-13,-2,-18,-7r-37,-38v-17,-16,-1,-46,19,-45v7,0,12,3,17,8","w":265},"a":{"d":"78,-466v0,-15,12,-25,27,-25r189,0v67,1,113,50,113,113r0,353v0,14,-11,25,-25,25v-21,0,-30,-17,-27,-41v-40,38,-85,44,-155,41v-74,-2,-123,-42,-146,-96v-38,-91,16,-180,85,-207v47,-18,107,-12,170,-12v32,0,49,-25,46,-63v-2,-35,-24,-63,-61,-63r-189,0v-15,0,-27,-10,-27,-25xm249,-50v62,-2,105,-50,106,-107r0,-119v-34,24,-101,13,-155,13v-59,0,-109,47,-106,106v3,64,42,103,106,107r49,0"},"b":{"d":"101,-757v15,0,26,10,26,25r0,241v69,2,137,-8,189,15v67,29,123,89,123,182v0,64,6,125,-15,173v-29,67,-91,120,-183,121r-140,1v-15,0,-25,-11,-25,-25r0,-708v0,-14,11,-25,25,-25xm387,-294v-1,-80,-60,-147,-146,-147r-114,0r0,391r114,0v80,-1,146,-60,146,-147r0,-97","w":453},"c":{"d":"363,-466v0,14,-12,25,-26,25v-52,2,-107,-7,-145,11v-48,21,-86,64,-86,130v0,57,-8,121,11,164v21,48,63,86,130,86r90,0v14,0,26,11,26,25v0,14,-12,25,-26,25v-61,-1,-121,5,-166,-15v-65,-30,-117,-86,-117,-177v0,-66,-7,-133,15,-182v30,-66,87,-115,178,-117r90,0v14,0,26,11,26,25","w":399},"d":{"d":"351,-759v14,0,25,11,25,25r0,709v1,15,-11,25,-25,25v-77,-4,-160,10,-217,-16v-67,-30,-120,-90,-120,-183v0,-64,-6,-126,16,-173v31,-67,88,-121,181,-121r115,0r0,-241v0,-14,11,-25,25,-25xm65,-295v0,55,-8,112,11,153v22,50,66,90,135,90r115,0r0,-390v-60,3,-127,-8,-172,12v-49,23,-89,66,-89,135","w":454},"e":{"d":"385,-25v0,14,-11,25,-25,25v-67,-2,-135,7,-184,-15v-66,-30,-118,-86,-118,-177v0,-66,-8,-132,14,-181v29,-65,88,-118,179,-118v105,0,190,79,192,191r0,49v0,14,-12,26,-26,26r-308,0v-6,86,29,138,87,164v43,19,106,8,164,11v14,0,25,11,25,25xm391,-276v3,-55,-15,-93,-41,-123v-50,-56,-153,-50,-199,0v-27,29,-46,67,-42,123r282,0"},"f":{"d":"98,0v-14,0,-26,-11,-26,-25r0,-573v2,-75,44,-122,98,-146v45,-21,109,-9,170,-12v14,0,26,11,26,25v0,14,-12,25,-26,25v-52,3,-111,-9,-150,8v-37,16,-67,49,-67,100r0,107r189,0v14,0,26,11,26,25v0,14,-12,25,-26,25r-189,0r0,416v0,14,-11,25,-25,25","w":366},"g":{"d":"402,-491v14,0,27,11,27,25r0,451v-3,90,-53,147,-119,176v-54,25,-130,12,-202,15v-13,0,-25,-11,-25,-25v0,-14,12,-25,25,-25v63,-3,135,10,182,-11v48,-21,85,-64,87,-130r0,-45v-43,50,-136,80,-215,46v-66,-28,-118,-87,-118,-178v0,-66,-8,-132,14,-181v28,-65,87,-118,177,-118v63,0,109,26,142,61v-1,-29,-4,-62,25,-61xm95,-192v-3,95,97,172,195,131v49,-20,87,-64,87,-131v0,-57,9,-120,-11,-162v-22,-47,-64,-87,-131,-87v-73,0,-140,58,-140,141r0,108","w":499},"h":{"d":"130,-433v52,-54,134,-76,213,-43v66,28,118,87,118,176r0,275v0,14,-12,25,-26,25v-13,0,-27,-11,-26,-25r0,-275v-2,-66,-37,-110,-86,-130v-95,-39,-195,30,-195,130r0,276v0,14,-12,26,-27,25v-12,0,-26,-13,-25,-25r0,-708v-1,-14,13,-25,25,-25v15,0,27,10,27,25r0,301v0,-1,1,-2,2,-2"},"i":{"d":"111,-580v0,15,-11,27,-26,27v-15,0,-25,-12,-25,-27v0,-14,11,-25,25,-25v14,0,26,11,26,25xm85,-491v14,0,26,11,26,25r0,439v0,15,-11,26,-26,26v-17,0,-25,-9,-25,-26r0,-439v0,-14,11,-25,25,-25","w":179},"j":{"d":"217,-580v0,15,-10,27,-25,27v-16,0,-25,-11,-25,-27v0,-15,10,-25,25,-25v14,0,25,11,25,25xm192,-491v14,0,25,11,25,25r0,451v-2,91,-53,147,-118,176v-23,10,-48,15,-74,15v-14,0,-25,-11,-25,-25v0,-14,11,-25,25,-25v66,-2,109,-38,131,-86v8,-17,11,-36,11,-55r0,-451v0,-15,10,-25,25,-25","w":275},"k":{"d":"101,-756v15,0,25,10,25,25r0,328r86,0r116,-84v10,-7,29,-4,35,5v8,13,7,31,-6,37r-105,75r166,334v9,20,-7,44,-32,36v-7,-2,-12,-7,-15,-13r-168,-340r-77,0r0,328v0,15,-10,25,-25,25v-14,0,-25,-11,-25,-25r0,-706v0,-14,11,-25,25,-25","w":435},"l":{"d":"76,-732v0,-15,12,-25,27,-25v12,0,26,11,25,25r0,705v1,15,-12,26,-25,26v-16,0,-27,-10,-27,-26r0,-705","w":214},"m":{"d":"409,-420v25,-39,72,-68,132,-71v97,-5,157,30,187,96v9,19,13,40,13,62r0,308v0,14,-12,25,-26,25v-14,0,-26,-11,-26,-25r0,-308v-4,-64,-43,-103,-107,-108v-88,-7,-147,28,-147,108r0,308v1,14,-13,25,-26,25v-14,0,-26,-11,-26,-25r0,-308v-1,-51,-31,-82,-67,-99v-23,-11,-51,-9,-82,-9v-63,0,-107,43,-107,105r0,311v0,14,-12,25,-26,25v-14,0,-25,-11,-25,-25r0,-441v0,-14,11,-25,25,-25v21,0,29,18,26,42v40,-37,81,-44,148,-42v61,2,108,33,134,71","w":815},"n":{"d":"102,-491v21,0,29,18,26,42v42,-43,96,-44,173,-42v75,2,122,42,147,96v9,19,13,40,13,62r0,308v1,14,-13,25,-25,25v-15,0,-27,-10,-27,-25r0,-308v-1,-51,-31,-82,-67,-99v-29,-14,-68,-9,-107,-9v-64,0,-107,43,-107,105r0,311v0,14,-12,25,-26,25v-14,0,-26,-11,-26,-25r0,-441v0,-14,12,-25,26,-25","w":531},"o":{"d":"176,-477v76,-32,167,-5,210,42v30,33,56,77,56,135v0,67,7,134,-15,183v-30,65,-87,117,-177,117v-90,0,-147,-52,-177,-117v-22,-49,-15,-116,-15,-183v0,-89,52,-150,118,-177xm250,-441v-75,0,-141,59,-141,141v0,57,-6,121,11,164v24,61,105,109,184,75v49,-21,88,-64,88,-131r0,-108v-2,-82,-66,-140,-142,-141","w":500},"p":{"d":"102,-491v14,0,26,11,26,25r0,36v48,-56,135,-80,214,-47v66,27,119,87,119,177v0,67,7,134,-15,183v-30,65,-87,117,-178,117v-61,0,-109,-25,-140,-60r0,211v0,14,-12,25,-26,25v-14,0,-26,-11,-26,-25r0,-617v0,-14,12,-25,26,-25xm410,-300v-2,-82,-65,-141,-142,-141v-77,0,-140,59,-140,141v0,57,-6,121,11,164v24,61,105,109,185,75v49,-21,86,-64,86,-131r0,-108","w":483},"q":{"d":"379,-491v14,0,25,11,25,25r0,617v0,14,-11,25,-25,25v-14,0,-25,-11,-25,-25r0,-211v-43,50,-138,79,-217,45v-66,-29,-117,-86,-117,-177v0,-66,-8,-132,14,-181v29,-66,87,-118,178,-118v63,0,109,26,142,61v-1,-29,-4,-62,25,-61xm266,-430v-96,-38,-195,29,-195,130v0,57,-6,121,11,164v24,61,105,109,184,75v49,-21,88,-64,88,-131v0,-57,8,-120,-12,-162v-15,-34,-42,-61,-76,-76","w":482},"r":{"d":"101,-491v21,0,30,16,27,40v44,-42,97,-42,174,-40v14,0,25,11,25,25v0,38,-57,23,-93,25v-64,3,-106,51,-106,112r0,304v0,15,-12,25,-27,25v-12,0,-26,-11,-25,-25r0,-441v-1,-14,13,-25,25,-25","w":329},"s":{"d":"154,-442v-40,-3,-67,57,-35,85v1,1,71,63,209,185v21,19,32,44,32,73v1,52,-47,99,-101,99r-196,0v-14,0,-25,-11,-25,-25v0,-14,11,-25,25,-25r196,0v45,2,67,-58,35,-86r-210,-183v-21,-21,-31,-45,-31,-74v-1,-53,46,-100,101,-100r171,0v14,0,26,11,26,25v0,15,-11,26,-26,26r-171,0","w":404},"t":{"d":"299,-466v0,14,-12,25,-26,25r-153,0r0,249v1,67,38,109,86,131v28,14,64,11,103,11v13,0,25,11,25,25v0,14,-12,25,-25,25v-48,0,-88,1,-123,-15v-66,-29,-118,-86,-118,-177r0,-539v0,-14,13,-25,27,-25v13,0,26,11,25,25r0,240r153,0v14,0,26,11,26,25","w":334},"u":{"d":"414,-491v13,0,26,11,25,25r0,441v1,14,-12,25,-25,25v-21,0,-30,-17,-27,-41v-33,35,-88,44,-158,41v-74,-3,-122,-42,-147,-96v-8,-19,-12,-40,-12,-62r0,-308v-1,-14,12,-25,25,-25v14,0,26,11,26,25r0,308v1,51,31,83,67,100v25,12,57,8,92,8v50,0,81,-29,98,-64v6,-13,9,-26,9,-40r0,-312v0,-14,13,-25,27,-25","w":517},"v":{"d":"390,-473v5,-22,41,-22,48,-3v2,6,3,13,1,20r-160,439v-6,22,-32,17,-57,17v-13,0,-21,-6,-25,-17r-159,-439v-6,-23,12,-41,36,-32v6,3,9,8,12,15r151,420","w":477},"w":{"d":"561,-472v3,-19,38,-26,47,-6v3,6,4,12,3,19r-109,439v-4,25,-32,20,-59,20v-13,0,-22,-7,-25,-20r-81,-337r-86,337v-5,24,-31,20,-58,20v-14,0,-24,-6,-27,-20r-109,-439v-5,-22,18,-40,39,-27v6,4,10,8,11,14r102,410r103,-410v6,-26,45,-23,50,0r98,409","w":668},"x":{"d":"401,-41v15,19,-2,47,-26,41v-7,-1,-12,-5,-16,-11r-130,-188r-131,188v-9,19,-44,12,-46,-9v-1,-7,-1,-14,4,-21r141,-204r-141,-203v-19,-29,25,-56,43,-29r130,187r129,-187v9,-20,45,-11,46,9v1,7,0,13,-4,20r-141,203","w":471},"y":{"d":"423,-477v7,-22,43,-18,47,2v2,7,3,13,0,20r-290,617v-6,20,-44,19,-49,-2v-2,-6,-2,-13,1,-20r104,-220r-185,-374v-10,-21,8,-44,31,-37v6,3,11,7,14,14r168,338","w":490},"z":{"d":"348,-491v28,-1,26,30,25,58v0,6,-1,11,-4,14r-269,367r0,2r248,0v14,0,25,11,25,25v0,14,-11,25,-25,25r-273,0v-9,0,-15,-2,-18,-7v-14,-8,-7,-33,-9,-53v3,-7,3,-10,7,-16r266,-365r-246,0v-14,0,-27,-11,-27,-25v0,-14,13,-25,27,-25r273,0","w":421},"|":{"d":"76,-811v0,-14,12,-26,26,-26v14,0,26,12,26,26r0,866v0,14,-12,25,-26,25v-14,0,-26,-11,-26,-25r0,-866","w":214},"~":{"d":"480,-494v32,-7,41,34,40,62v-1,81,-90,137,-167,101v-27,-13,-51,-37,-61,-67v-10,-32,-43,-51,-82,-39v-27,9,-53,46,-41,84v6,21,-11,39,-32,31v-27,-19,-23,-75,-9,-104v19,-38,54,-71,112,-68v53,2,90,37,102,78v9,31,43,50,84,39v31,-8,50,-45,39,-81v-5,-17,2,-33,15,-36","w":626},"\u00a3":{"d":"378,-152v21,-11,25,-39,54,-27v31,24,-3,57,-24,69v-27,16,-63,26,-111,17r-69,-13v-34,-7,-63,0,-90,11v-24,9,-48,-15,-34,-38v6,-10,12,-13,25,-14v51,-18,86,-58,88,-123v0,-12,0,-23,-4,-31r-115,0v-11,0,-22,-11,-21,-23v0,-10,11,-24,21,-23r92,0v-18,-22,-37,-41,-48,-69r-44,0v-11,0,-22,-11,-21,-22v-1,-26,26,-25,52,-24v-11,-93,41,-163,109,-191v73,-30,157,-1,196,39v16,16,2,44,-18,43v-7,0,-13,-3,-18,-8v-23,-21,-53,-37,-92,-37v-83,0,-139,69,-126,154r157,0v14,0,25,10,25,24v0,12,-12,23,-25,22r-138,0v11,15,28,26,37,42r15,27r86,0v13,-1,25,12,25,23v-2,37,-61,19,-96,23v8,55,-5,105,-34,142v44,6,105,28,146,7","w":524},"\u00a5":{"d":"154,-400v1,-32,51,-20,83,-22r-147,-212v-18,-28,25,-56,42,-30r164,237r165,-237v9,-19,47,-10,47,10v1,7,0,14,-4,20r-146,212v32,3,83,-12,84,22v0,17,-8,25,-23,25r-93,0r-3,4r0,71r96,0v15,0,23,8,23,23v0,14,-9,23,-23,23r-96,0r0,144v0,14,-13,26,-27,26v-11,0,-24,-13,-24,-26r0,-144r-95,0v-12,0,-23,-10,-23,-23v0,-14,11,-23,23,-23r95,0r0,-71v-3,0,-3,-1,-3,-4r-92,0v-12,0,-24,-12,-23,-25","w":593},"\u00a7":{"d":"449,-716v-1,-43,-33,-78,-78,-78r-148,0v-49,0,-98,55,-72,108v17,35,52,55,82,81r225,200v26,22,43,54,43,96v0,66,-41,104,-92,122v38,39,93,67,92,141v-1,61,-35,100,-79,120v-16,7,-33,10,-50,10r-146,0v-54,2,-103,-36,-120,-80v-9,-24,-20,-76,17,-75v16,0,24,8,24,25v2,45,33,81,79,80r146,0v56,-1,92,-57,70,-111v-12,-28,-41,-46,-65,-67r-240,-211v-53,-46,-53,-146,-4,-190v18,-16,35,-22,56,-32v-38,-38,-93,-64,-93,-139v0,-64,59,-127,127,-127r148,0v69,-3,130,63,130,127v0,13,-13,26,-25,26v-17,0,-27,-10,-27,-26xm353,-234v67,9,114,-46,89,-106v-12,-29,-42,-47,-65,-68v-12,-11,-27,-20,-41,-34r-31,-31v-19,-19,-43,-39,-64,-58v-47,-3,-74,18,-90,49v-20,39,4,74,32,98","w":597},"\u00a9":{"d":"250,-334v-1,43,38,80,82,80v34,0,81,-8,81,24v0,31,-48,23,-81,23v-60,0,-98,-34,-118,-77v-17,-37,-10,-91,-10,-141v0,-60,35,-99,78,-118v28,-14,65,-9,104,-10v12,-1,27,13,27,24v-2,30,-49,20,-81,22v-48,3,-82,34,-82,82r0,91xm226,-646v68,-30,156,-30,224,0v98,44,175,130,175,266v0,135,-78,221,-175,266v-68,31,-156,30,-224,0v-98,-45,-175,-131,-175,-266v0,-135,77,-222,175,-266xm244,-158v57,25,131,26,188,0v81,-37,147,-109,147,-222v0,-113,-65,-185,-147,-222v-57,-26,-131,-25,-188,0v-82,37,-146,108,-146,222v0,113,64,185,146,222","w":678},"\u00ab":{"d":"228,-574v17,-14,45,2,41,22v-1,7,-5,13,-10,17r-186,157r186,157v18,14,9,43,-13,45v-7,1,-12,-1,-18,-6r-213,-176v-12,-14,-13,-29,0,-40xm388,-574v17,-14,45,2,41,22v-1,7,-5,13,-10,17r-186,157r186,157v18,14,9,43,-13,45v-7,1,-12,-1,-18,-6r-213,-176v-12,-14,-13,-29,0,-40","w":479},"\u00ad":{"d":"49,-378v0,-14,13,-25,27,-25r265,0v12,0,25,11,25,25v0,14,-13,25,-25,25r-265,0v-14,0,-27,-11,-27,-25","w":423},"\u00ae":{"d":"223,-529v0,-11,14,-25,26,-24v49,3,102,-7,139,9v47,20,84,75,59,139v-7,20,-28,34,-42,49v-5,5,-12,9,-19,11r67,102v7,12,3,26,-6,31v-15,8,-28,5,-36,-8r-77,-119r-64,0r0,109v1,12,-10,23,-21,23v-13,0,-27,-10,-26,-23r0,-299xm409,-445v0,-34,-30,-61,-61,-62r-78,0r0,121r78,0v34,0,61,-26,61,-59xm220,-646v68,-30,156,-30,224,0v98,44,174,131,174,266v0,134,-77,221,-174,266v-68,31,-156,30,-224,0v-98,-45,-177,-131,-177,-266v0,-136,79,-222,177,-266xm238,-158v58,25,130,26,188,0v82,-37,146,-109,146,-222v0,-113,-64,-185,-146,-222v-58,-26,-130,-25,-188,0v-83,37,-149,108,-149,222v0,114,67,185,149,222","w":662},"\u00b0":{"d":"170,-824v-1,43,-33,73,-73,74v-40,1,-74,-35,-74,-74v0,-39,34,-73,74,-73v38,0,74,35,73,73xm132,-824v1,-18,-17,-35,-35,-35v-19,0,-38,17,-37,35v1,16,15,36,37,35v20,-1,35,-16,35,-35","w":225},"\u00ba":{"d":"194,-871v-1,43,-33,73,-73,74v-40,1,-74,-35,-74,-74v0,-39,34,-73,74,-73v38,0,74,35,73,73xm156,-871v1,-18,-17,-35,-35,-35v-19,0,-38,17,-37,35v1,16,15,36,37,35v20,-1,35,-16,35,-35","w":234},"\u00bb":{"d":"292,-398v9,10,11,31,0,40r-213,176v-16,17,-44,-1,-41,-21v1,-7,4,-13,9,-18r186,-157r-186,-157v-19,-12,-6,-45,14,-44v7,-1,13,1,18,5xm452,-398v9,10,11,31,0,40r-213,176v-16,17,-44,-1,-41,-21v1,-7,4,-13,9,-18r186,-157r-186,-157v-19,-12,-6,-45,14,-44v7,-1,13,1,18,5","w":472},"\u00bf":{"d":"328,-721v0,15,-12,25,-27,25v-12,0,-25,-11,-25,-25v0,-14,13,-25,25,-25v15,0,27,10,27,25xm406,-25v0,14,-11,25,-25,25r-199,0v-84,-2,-137,-47,-164,-108v-19,-42,-19,-97,0,-140v27,-61,80,-106,164,-108v53,-1,94,-39,94,-95r0,-61v-1,-14,12,-27,25,-27v16,0,27,11,27,27r0,61v-1,86,-66,146,-146,147v-91,1,-151,86,-117,176v17,45,57,78,117,78r199,0v14,0,25,11,25,25","w":414},"\u00c0":{"d":"374,-848v17,15,3,44,-18,44v-7,0,-14,-2,-19,-7r-37,-38v-17,-16,-2,-46,18,-45v7,0,13,3,18,8xm647,-34v6,22,-14,41,-37,32v-6,-3,-10,-9,-12,-16r-80,-231r-356,0r-79,231v-4,21,-38,25,-47,4v-3,-7,-5,-13,-2,-20r242,-705v5,-12,13,-18,24,-18r78,0v12,0,20,6,25,18xm500,-301r-140,-405r-41,0r-138,405r319,0","w":690},"\u00c1":{"d":"353,-813v-15,17,-43,2,-43,-19v0,-7,1,-13,6,-18r38,-37v16,-17,45,-1,44,19v0,7,-2,12,-7,17xm647,-34v6,22,-14,41,-37,32v-6,-3,-10,-9,-12,-16r-80,-231r-356,0r-79,231v-4,21,-38,25,-47,4v-3,-7,-5,-13,-2,-20r242,-705v5,-12,13,-18,24,-18r78,0v12,0,20,6,25,18xm500,-301r-140,-405r-41,0r-138,405r319,0","w":690},"\u00c2":{"d":"421,-813v-15,17,-43,2,-43,-19v0,-7,1,-13,6,-18r38,-37v16,-17,45,-1,44,19v0,7,-2,12,-7,17xm289,-848v17,15,2,44,-19,44v-7,0,-13,-2,-18,-7r-37,-38v-17,-16,-1,-46,19,-45v7,0,12,3,17,8xm647,-34v6,22,-14,41,-37,32v-6,-3,-10,-9,-12,-16r-80,-231r-356,0r-79,231v-4,21,-38,25,-47,4v-3,-7,-5,-13,-2,-20r242,-705v5,-12,13,-18,24,-18r78,0v12,0,20,6,25,18xm500,-301r-140,-405r-41,0r-138,405r319,0","w":690},"\u00c3":{"d":"250,-829v7,21,-10,40,-30,31v-22,-10,-25,-51,-13,-77v17,-35,69,-61,111,-38v16,9,34,27,39,46v8,30,67,27,67,-7v0,-12,-9,-24,-3,-34v5,-20,39,-18,45,3v20,72,-43,125,-112,97v-19,-8,-33,-24,-41,-45v-6,-13,-21,-25,-41,-18v-14,5,-28,22,-22,42xm647,-34v6,22,-14,41,-37,32v-6,-3,-10,-9,-12,-16r-80,-231r-356,0r-79,231v-4,21,-38,25,-47,4v-3,-7,-5,-13,-2,-20r242,-705v5,-12,13,-18,24,-18r78,0v12,0,20,6,25,18xm500,-301r-140,-405r-41,0r-138,405r319,0","w":690},"\u00c4":{"d":"654,-34v8,22,-14,41,-36,32v-6,-3,-10,-9,-13,-16r-80,-231r-354,0r-80,231v-5,11,-16,23,-32,17v-12,-4,-22,-17,-17,-33r242,-705v5,-12,13,-18,24,-18r78,0v12,0,20,6,25,18xm507,-301r-139,-405r-41,0r-140,405r320,0xm219,-757v-14,0,-26,-12,-26,-26v0,-14,12,-26,26,-26v14,0,26,12,26,26v0,14,-12,26,-26,26xm474,-757v-14,0,-26,-12,-26,-26v0,-14,12,-26,26,-26v14,0,26,12,26,26v0,14,-12,26,-26,26","w":698},"\u00c5":{"d":"647,-34v6,22,-14,41,-37,32v-6,-3,-10,-9,-12,-16r-80,-231r-356,0r-79,231v-4,21,-38,25,-47,4v-3,-7,-5,-13,-2,-20r242,-705v5,-12,13,-18,24,-18r78,0v12,0,20,6,25,18xm500,-301r-140,-405r-41,0r-138,405r319,0xm412,-871v-1,43,-33,73,-73,74v-40,1,-74,-35,-74,-74v0,-39,34,-73,74,-73v38,0,74,35,73,73xm374,-871v1,-18,-17,-35,-35,-35v-19,0,-38,17,-37,35v1,16,15,36,37,35v20,-1,35,-16,35,-35","w":679},"\u00c7":{"d":"486,-732v0,14,-11,27,-25,27v-80,3,-162,-10,-221,17v-75,33,-133,99,-133,201r0,215v1,104,60,170,133,204v58,28,141,14,221,17v17,0,25,8,25,25v0,14,-11,27,-25,27r-89,0v-11,0,-20,11,-20,22v0,13,14,22,25,23v35,0,64,29,64,66v0,37,-29,68,-64,67v-29,-1,-67,7,-67,-22v0,-12,10,-22,22,-22r45,0v11,0,21,-11,21,-23v0,-13,-9,-24,-21,-24v-47,0,-83,-42,-64,-90v-76,-4,-137,-35,-179,-79v-51,-54,-79,-116,-79,-191r0,-215v3,-127,72,-207,164,-249v65,-30,153,-19,242,-21v17,0,25,8,25,25","w":500},"\u00c8":{"d":"344,-848v17,15,3,44,-18,44v-7,0,-14,-2,-19,-7r-37,-38v-17,-16,-2,-46,18,-45v7,0,13,3,18,8xm550,-731v0,14,-12,25,-26,25r-398,0r0,266r351,0v14,0,26,12,26,26v0,14,-12,26,-26,26r-351,0r0,336r398,0v14,0,26,13,26,27v0,14,-12,25,-26,25r-423,0v-14,0,-25,-11,-25,-25r0,-706v0,-14,11,-26,25,-26r423,0v14,0,26,12,26,26","w":554},"\u00c9":{"d":"329,-818v-15,17,-43,3,-43,-18v0,-7,1,-14,6,-19r38,-37v16,-17,45,-2,44,18v0,7,-2,13,-7,18xm550,-731v0,14,-12,25,-26,25r-398,0r0,266r351,0v14,0,26,12,26,26v0,14,-12,26,-26,26r-351,0r0,336r398,0v14,0,26,13,26,27v0,14,-12,25,-26,25r-423,0v-14,0,-25,-11,-25,-25r0,-706v0,-14,11,-26,25,-26r423,0v14,0,26,12,26,26","w":554},"\u00ca":{"d":"406,-813v-15,17,-44,2,-44,-19v0,-7,2,-13,7,-18r38,-37v16,-17,46,-1,45,19v0,7,-3,12,-8,17xm274,-848v17,15,3,44,-18,44v-7,0,-14,-2,-19,-7r-37,-38v-17,-16,-2,-46,18,-45v7,0,13,3,18,8xm550,-731v0,14,-12,25,-26,25r-398,0r0,266r351,0v14,0,26,12,26,26v0,14,-12,26,-26,26r-351,0r0,336r398,0v14,0,26,13,26,27v0,14,-12,25,-26,25r-423,0v-14,0,-25,-11,-25,-25r0,-706v0,-14,11,-26,25,-26r423,0v14,0,26,12,26,26","w":554},"\u00cb":{"d":"227,-835v0,-14,11,-25,25,-25v14,0,26,11,26,25v0,14,-12,25,-26,25v-14,0,-25,-11,-25,-25xm387,-835v0,-14,11,-25,25,-25v14,0,26,11,26,25v0,14,-12,25,-26,25v-14,0,-25,-11,-25,-25xm550,-731v0,14,-12,25,-26,25r-398,0r0,266r351,0v14,0,26,12,26,26v0,14,-12,26,-26,26r-351,0r0,336r398,0v14,0,26,13,26,27v0,14,-12,25,-26,25r-423,0v-14,0,-25,-11,-25,-25r0,-706v0,-14,11,-26,25,-26r423,0v14,0,26,12,26,26","w":554},"\u00cc":{"d":"124,-848v17,15,3,44,-18,44v-7,0,-14,-2,-19,-7r-37,-38v-17,-16,-2,-46,18,-45v7,0,13,3,18,8xm76,-731v0,-14,12,-26,26,-26v14,0,26,12,26,26r0,706v0,14,-12,25,-26,25v-14,0,-26,-11,-26,-25r0,-706","w":214},"\u00cd":{"d":"123,-813v-15,17,-43,2,-43,-19v0,-7,1,-13,6,-18r38,-37v16,-17,45,-1,44,19v0,7,-2,12,-7,17xm76,-731v0,-14,12,-26,26,-26v14,0,26,12,26,26r0,706v0,14,-12,25,-26,25v-14,0,-26,-11,-26,-25r0,-706","w":214},"\u00ce":{"d":"176,-813v-15,17,-44,2,-44,-19v0,-7,2,-13,7,-18r38,-37v16,-17,46,-1,45,19v0,7,-3,12,-8,17xm74,-848v17,15,3,44,-18,44v-7,0,-14,-2,-19,-7r-37,-38v-17,-16,-2,-46,18,-45v7,0,13,3,18,8xm76,-731v0,-14,12,-26,26,-26v14,0,26,12,26,26r0,706v0,14,-12,25,-26,25v-14,0,-26,-11,-26,-25r0,-706","w":214},"\u00cf":{"d":"26,-835v0,-14,11,-25,25,-25v14,0,26,11,26,25v0,14,-12,25,-26,25v-14,0,-25,-11,-25,-25xm126,-835v0,-14,11,-25,25,-25v14,0,26,11,26,25v0,14,-12,25,-26,25v-14,0,-25,-11,-25,-25xm76,-731v0,-14,12,-26,26,-26v14,0,26,12,26,26r0,706v0,14,-12,25,-26,25v-14,0,-26,-11,-26,-25r0,-706","w":214},"\u00d1":{"d":"561,-730v0,-14,10,-27,24,-27v14,0,26,13,26,27r0,703v0,14,-12,28,-26,27v-32,-3,-74,10,-87,-15r-348,-692r-22,0r0,680v0,14,-10,27,-23,27v-16,1,-29,-12,-29,-27r0,-703v0,-15,13,-28,29,-27v30,3,73,-10,85,14r347,689r24,0r0,-676xm274,-829v7,21,-10,40,-30,31v-22,-10,-25,-51,-13,-77v17,-35,69,-61,111,-38v16,9,34,27,39,46v8,30,67,27,67,-7v0,-12,-9,-24,-3,-34v5,-20,39,-18,45,3v20,72,-43,125,-112,97v-19,-8,-33,-24,-41,-45v-6,-13,-21,-25,-41,-18v-14,5,-28,22,-22,42","w":687},"\u00d2":{"d":"224,-736v64,-28,145,-28,210,-1v93,39,166,123,166,250r0,217v-3,127,-74,206,-165,248v-64,29,-146,29,-211,0v-92,-42,-164,-121,-164,-248r0,-217v3,-127,72,-208,164,-249xm549,-487v-1,-66,-30,-116,-65,-154v-50,-53,-153,-85,-238,-48v-74,33,-134,99,-134,202r0,217v3,102,60,168,134,201v52,23,117,23,169,0v75,-33,134,-98,134,-201r0,-217xm364,-848v17,15,3,44,-18,44v-7,0,-14,-2,-19,-7r-37,-38v-17,-16,-2,-46,18,-45v7,0,13,3,18,8","w":660},"\u00d3":{"d":"333,-813v-15,17,-43,2,-43,-19v0,-7,1,-13,6,-18r38,-37v16,-17,45,-1,44,19v0,7,-2,12,-7,17xm224,-736v64,-28,145,-28,210,-1v93,39,166,123,166,250r0,217v-3,127,-74,206,-165,248v-64,29,-146,29,-211,0v-92,-42,-164,-121,-164,-248r0,-217v3,-127,72,-208,164,-249xm549,-487v-1,-66,-30,-116,-65,-154v-50,-53,-153,-85,-238,-48v-74,33,-134,99,-134,202r0,217v3,102,60,168,134,201v52,23,117,23,169,0v75,-33,134,-98,134,-201r0,-217","w":660},"\u00d4":{"d":"416,-813v-15,17,-44,2,-44,-19v0,-7,2,-13,7,-18r38,-37v16,-17,46,-1,45,19v0,7,-3,12,-8,17xm284,-848v17,15,3,44,-18,44v-7,0,-14,-2,-19,-7r-37,-38v-17,-16,-2,-46,18,-45v7,0,13,3,18,8xm224,-736v64,-28,145,-28,210,-1v93,39,166,123,166,250r0,217v-3,127,-74,206,-165,248v-64,29,-146,29,-211,0v-92,-42,-164,-121,-164,-248r0,-217v3,-127,72,-208,164,-249xm549,-487v-1,-66,-30,-116,-65,-154v-50,-53,-153,-85,-238,-48v-74,33,-134,99,-134,202r0,217v3,102,60,168,134,201v52,23,117,23,169,0v75,-33,134,-98,134,-201r0,-217","w":660},"\u00d5":{"d":"224,-736v64,-28,145,-28,210,-1v93,39,166,123,166,250r0,217v-3,127,-74,206,-165,248v-64,29,-146,29,-211,0v-92,-42,-164,-121,-164,-248r0,-217v3,-127,72,-208,164,-249xm549,-487v-1,-66,-30,-116,-65,-154v-50,-53,-153,-85,-238,-48v-74,33,-134,99,-134,202r0,217v3,102,60,168,134,201v52,23,117,23,169,0v75,-33,134,-98,134,-201r0,-217xm250,-829v7,21,-10,40,-30,31v-22,-10,-25,-51,-13,-77v17,-35,69,-61,111,-38v16,9,34,27,39,46v8,30,67,27,67,-7v0,-12,-9,-24,-3,-34v5,-20,39,-18,45,3v20,72,-43,125,-112,97v-19,-8,-33,-24,-41,-45v-6,-13,-21,-25,-41,-18v-14,5,-28,22,-22,42","w":660},"\u00d6":{"d":"227,-736v64,-28,146,-28,211,0v93,41,165,122,165,249r0,217v-4,127,-73,206,-165,248v-64,28,-144,30,-209,2v-93,-39,-167,-124,-167,-250r0,-217v4,-126,73,-208,165,-249xm552,-487v0,-65,-29,-118,-64,-154v-61,-62,-152,-85,-240,-48v-75,32,-134,99,-134,202r0,217v1,104,60,170,134,202v52,23,117,21,169,-1v75,-33,135,-98,135,-201r0,-217xm139,-757v-14,0,-25,-11,-25,-25v0,-14,11,-26,25,-26v14,0,26,12,26,26v0,14,-12,25,-26,25xm526,-757v-14,0,-25,-11,-25,-25v0,-14,11,-26,25,-26v14,0,26,12,26,26v0,14,-12,25,-26,25","w":665},"\u00d7":{"d":"341,-222v13,16,-2,38,-20,34v-6,-1,-11,-4,-14,-9r-107,-155r-107,155v-8,17,-38,8,-39,-8v-1,-6,1,-12,5,-17r115,-168r-115,-165v-12,-18,3,-36,21,-34v6,1,11,4,14,9r106,154r106,-154v8,-16,38,-8,39,8v1,6,-1,11,-5,17r-116,165","w":405},"\u00d8":{"d":"332,-757v79,0,138,32,184,70r38,-58v13,-17,46,-12,48,11v1,8,0,14,-3,18r-49,69v30,41,51,91,52,156r0,222v-3,127,-74,207,-165,248v-33,14,-68,21,-105,21v-79,0,-138,-33,-183,-71r-40,61v-10,19,-44,10,-45,-12v-1,-8,2,-13,6,-19r46,-69v-36,-46,-54,-99,-54,-159r0,-222v4,-124,73,-205,164,-245v33,-14,69,-21,106,-21xm486,-644v-49,-54,-154,-84,-239,-46v-74,33,-135,98,-135,199r0,222v0,47,14,85,35,114xm179,-114v48,54,154,79,237,43v74,-33,134,-96,134,-198r0,-222v0,-44,-13,-82,-32,-111","w":660},"\u00d9":{"d":"558,-731v0,-14,11,-26,25,-26v14,0,25,12,25,26r0,461v-3,127,-72,207,-164,248v-65,29,-147,29,-211,0v-92,-42,-165,-121,-165,-248r0,-461v0,-14,12,-26,26,-26v14,0,26,12,26,26r0,461v3,102,60,168,134,201v52,23,117,23,169,0v75,-33,135,-98,135,-201r0,-461xm364,-848v17,15,3,44,-18,44v-7,0,-14,-2,-19,-7r-37,-38v-17,-16,-2,-46,18,-45v7,0,13,3,18,8","w":676},"\u00da":{"d":"558,-731v0,-14,11,-26,25,-26v14,0,25,12,25,26r0,461v-3,127,-72,207,-164,248v-65,29,-147,29,-211,0v-92,-42,-165,-121,-165,-248r0,-461v0,-14,12,-26,26,-26v14,0,26,12,26,26r0,461v3,102,60,168,134,201v52,23,117,23,169,0v75,-33,135,-98,135,-201r0,-461xm353,-813v-15,17,-43,2,-43,-19v0,-7,1,-13,6,-18r38,-37v16,-17,45,-1,44,19v0,7,-2,12,-7,17","w":676},"\u00db":{"d":"558,-731v0,-14,11,-26,25,-26v14,0,25,12,25,26r0,461v-3,127,-72,207,-164,248v-65,29,-147,29,-211,0v-92,-42,-165,-121,-165,-248r0,-461v0,-14,12,-26,26,-26v14,0,26,12,26,26r0,461v3,102,60,168,134,201v52,23,117,23,169,0v75,-33,135,-98,135,-201r0,-461xm426,-813v-15,17,-44,2,-44,-19v0,-7,2,-13,7,-18r38,-37v16,-17,46,-1,45,19v0,7,-3,12,-8,17xm294,-848v17,15,3,44,-18,44v-7,0,-14,-2,-19,-7r-37,-38v-17,-16,-2,-46,18,-45v7,0,13,3,18,8","w":676},"\u00dc":{"d":"558,-731v0,-14,11,-26,25,-26v14,0,25,12,25,26r0,461v-3,127,-72,207,-164,248v-65,29,-147,29,-211,0v-92,-42,-165,-121,-165,-248r0,-461v0,-14,12,-26,26,-26v14,0,26,12,26,26r0,461v3,102,60,168,134,201v52,23,117,23,169,0v75,-33,135,-98,135,-201r0,-461xm262,-809v-14,0,-25,-11,-25,-25v0,-14,11,-26,25,-26v14,0,26,12,26,26v0,14,-12,25,-26,25xm422,-809v-14,0,-25,-11,-25,-25v0,-14,11,-26,25,-26v14,0,26,12,26,26v0,14,-12,25,-26,25","w":676},"\u00dd":{"d":"314,-813v-15,17,-44,2,-44,-19v0,-7,2,-13,7,-18r38,-37v16,-17,46,-1,45,19v0,7,-3,12,-8,17xm298,0v-14,0,-26,-11,-26,-25r0,-347r-6,-7r-232,-338v-15,-17,2,-46,25,-39v7,1,13,4,17,10r221,320r223,-320v9,-17,46,-12,46,10v0,7,-1,14,-4,19r-238,345r0,347v0,14,-12,25,-26,25","w":593},"\u00df":{"d":"428,-580v2,66,-26,113,-62,145v76,22,134,78,134,172v0,57,5,112,-14,153v-28,61,-80,107,-164,110r-76,0v-12,0,-25,-14,-25,-27v0,-13,13,-27,25,-27v45,-2,90,6,124,-10v44,-20,80,-56,80,-117v0,-47,7,-98,-10,-132v-20,-43,-59,-77,-118,-77r-73,0v-14,1,-26,-13,-26,-26v0,-14,12,-26,26,-26v61,-1,99,-34,118,-78v23,-52,2,-122,-27,-150v-30,-29,-90,-49,-140,-27v-45,21,-75,61,-75,127r0,543v0,14,-13,27,-27,27v-13,0,-26,-13,-25,-27r0,-553v2,-83,47,-138,108,-163v102,-43,203,17,233,94v9,21,14,44,14,69","w":565},"\u00e0":{"d":"78,-466v0,-15,12,-25,27,-25r189,0v67,1,113,50,113,113r0,353v0,14,-11,25,-25,25v-21,0,-30,-17,-27,-41v-40,38,-85,44,-155,41v-74,-2,-123,-42,-146,-96v-38,-91,16,-180,85,-207v47,-18,107,-12,170,-12v32,0,49,-25,46,-63v-2,-35,-24,-63,-61,-63r-189,0v-15,0,-27,-10,-27,-25xm249,-50v62,-2,105,-50,106,-107r0,-119v-34,24,-101,13,-155,13v-59,0,-109,47,-106,106v3,64,42,103,106,107r49,0xm196,-601v-17,-15,-3,-43,18,-43v7,0,14,1,19,6r37,38v17,16,2,45,-18,44v-7,0,-13,-2,-18,-7"},"\u00e1":{"d":"265,-564v-15,17,-43,3,-43,-18v0,-7,1,-14,6,-19r38,-37v16,-17,45,-2,44,18v0,7,-2,13,-7,18xm78,-466v0,-15,12,-25,27,-25r189,0v67,1,113,50,113,113r0,353v0,14,-11,25,-25,25v-21,0,-30,-17,-27,-41v-40,38,-85,44,-155,41v-74,-2,-123,-42,-146,-96v-38,-91,16,-180,85,-207v47,-18,107,-12,170,-12v32,0,49,-25,46,-63v-2,-35,-24,-63,-61,-63r-189,0v-15,0,-27,-10,-27,-25xm249,-50v62,-2,105,-50,106,-107r0,-119v-34,24,-101,13,-155,13v-59,0,-109,47,-106,106v3,64,42,103,106,107r49,0"},"\u00e2":{"d":"334,-574v14,17,-2,45,-22,41v-7,-1,-13,-5,-17,-10r-77,-90r-77,90v-14,18,-43,9,-45,-13v-1,-7,1,-12,6,-18r96,-117v14,-12,29,-14,40,0xm64,-466v0,-14,12,-25,26,-25r190,0v52,2,87,31,104,69v6,14,9,28,9,44r0,353v0,14,-11,25,-25,25v-21,0,-29,-17,-26,-41v-42,38,-86,44,-157,41v-74,-2,-123,-42,-145,-96v-38,-91,16,-178,84,-206v46,-19,108,-10,171,-13v32,-1,47,-25,47,-63v0,-34,-28,-64,-62,-63r-190,0v-14,0,-26,-11,-26,-25xm235,-50v62,-1,105,-51,105,-107r0,-119v-43,30,-139,-1,-196,22v-46,18,-81,78,-56,138v15,37,47,66,97,66r50,0"},"\u00e3":{"d":"64,-466v0,-14,12,-25,26,-25r190,0v52,2,87,31,104,69v6,14,9,28,9,44r0,353v0,14,-11,25,-25,25v-21,0,-29,-17,-26,-41v-42,38,-86,44,-157,41v-74,-2,-123,-42,-145,-96v-38,-91,16,-178,84,-206v46,-19,108,-10,171,-13v32,-1,47,-25,47,-63v0,-34,-28,-64,-62,-63r-190,0v-14,0,-26,-11,-26,-25xm235,-50v62,-1,105,-51,105,-107r0,-119v-43,30,-139,-1,-196,22v-46,18,-81,78,-56,138v15,37,47,66,97,66r50,0xm136,-569v7,21,-10,40,-30,31v-22,-10,-25,-51,-13,-77v17,-35,69,-61,111,-38v16,9,34,27,39,46v8,30,67,27,67,-7v0,-12,-9,-24,-3,-34v5,-20,39,-18,45,3v20,72,-43,125,-112,97v-19,-8,-33,-24,-41,-45v-6,-13,-21,-25,-41,-18v-14,5,-28,22,-22,42","w":436},"\u00e4":{"d":"64,-466v0,-14,12,-25,26,-25r190,0v52,2,87,31,104,69v6,14,9,28,9,44r0,353v0,14,-11,25,-25,25v-21,0,-29,-17,-26,-41v-42,38,-86,44,-157,41v-74,-2,-123,-42,-145,-96v-38,-91,16,-178,84,-206v46,-19,108,-10,171,-13v32,-1,47,-25,47,-63v0,-34,-28,-64,-62,-63r-190,0v-14,0,-26,-11,-26,-25xm235,-50v62,-1,105,-51,105,-107r0,-119v-43,30,-139,-1,-196,22v-46,18,-81,78,-56,138v15,37,47,66,97,66r50,0xm105,-552v-14,0,-25,-11,-25,-25v0,-14,11,-26,25,-26v14,0,26,12,26,26v0,14,-12,25,-26,25xm316,-552v-14,0,-25,-11,-25,-25v0,-14,11,-26,25,-26v14,0,26,12,26,26v0,14,-12,25,-26,25","w":449},"\u00e5":{"d":"70,-466v0,-14,11,-25,25,-25r191,0v52,2,87,31,104,69v6,14,9,28,9,44r0,353v1,14,-12,25,-25,25v-21,0,-30,-17,-27,-41v-40,39,-86,44,-156,41v-74,-2,-123,-42,-145,-96v-38,-91,16,-178,84,-206v46,-19,107,-10,170,-13v32,-1,47,-25,47,-63v0,-33,-28,-64,-61,-63r-191,0v-14,0,-25,-11,-25,-25xm241,-50v60,-2,106,-42,106,-98r0,-128v-36,23,-101,13,-156,13v-73,0,-127,74,-97,147v15,37,47,66,97,66r50,0xm307,-626v-1,43,-34,74,-73,74v-41,1,-74,-33,-74,-74v0,-39,34,-73,74,-73v40,0,74,34,73,73xm269,-626v0,-18,-16,-35,-35,-35v-19,0,-36,17,-36,35v-1,19,17,38,36,37v20,-1,35,-18,35,-37","w":455},"\u00e6":{"d":"393,-422v30,-38,81,-74,148,-73v102,2,192,85,190,203v0,17,-8,29,-27,29r-306,-2v1,46,-5,93,10,127v20,47,58,84,122,84r134,0v14,0,28,13,28,27v0,14,-14,27,-28,27v-73,-3,-153,10,-206,-16v-31,-15,-60,-36,-78,-66v-33,42,-72,82,-143,82v-42,0,-77,1,-109,-12v-68,-28,-118,-118,-82,-207v22,-55,70,-97,143,-97r159,0r0,-62v2,-34,-31,-65,-63,-64r-192,0v-12,1,-24,-12,-24,-23v0,-15,10,-30,24,-30r192,0v50,0,92,36,108,73xm679,-313v-15,-84,-90,-156,-189,-119v-48,18,-82,59,-92,116xm237,-54v61,0,111,-43,111,-103r0,-108r-159,0v-64,3,-104,44,-104,108v0,62,41,100,104,103r48,0","w":771},"\u00e7":{"d":"362,-470v0,15,-10,26,-25,26v-53,0,-108,-6,-147,12v-48,22,-88,63,-88,129v0,58,-8,121,12,164v23,49,64,88,132,88r91,0v15,-1,25,11,25,25v0,15,-10,26,-25,26r-79,0v-9,-1,-21,11,-20,20v0,7,8,21,23,20v34,-3,67,32,67,67v0,36,-33,67,-67,66v-28,-1,-66,8,-66,-21v0,-13,9,-23,22,-23r44,0v11,0,19,-11,19,-22v0,-9,-9,-21,-19,-20v-47,0,-78,-46,-61,-92v-85,-25,-149,-86,-149,-190v0,-67,-8,-133,15,-182v31,-66,88,-116,180,-118r91,0v15,-1,25,11,25,25","w":399},"\u00e8":{"d":"275,-608v17,15,2,44,-19,44v-7,0,-13,-2,-18,-7r-37,-38v-17,-16,-1,-46,19,-45v7,0,12,3,17,8xm385,-25v0,14,-11,25,-25,25v-67,-2,-135,7,-184,-15v-66,-30,-118,-86,-118,-177v0,-66,-8,-132,14,-181v29,-65,88,-118,179,-118v105,0,190,79,192,191r0,49v0,14,-12,26,-26,26r-308,0v-6,86,29,138,87,164v43,19,106,8,164,11v14,0,25,11,25,25xm391,-276v3,-55,-15,-93,-41,-123v-50,-56,-153,-50,-199,0v-27,29,-46,67,-42,123r282,0"},"\u00e9":{"d":"385,-25v0,14,-11,25,-25,25v-67,-2,-135,7,-184,-15v-66,-30,-118,-86,-118,-177v0,-66,-8,-132,14,-181v29,-65,88,-118,179,-118v105,0,190,79,192,191r0,49v0,14,-12,26,-26,26r-308,0v-6,86,29,138,87,164v43,19,106,8,164,11v14,0,25,11,25,25xm391,-276v3,-55,-15,-93,-41,-123v-50,-56,-153,-50,-199,0v-27,29,-46,67,-42,123r282,0xm275,-574v-15,17,-43,3,-43,-18v0,-7,1,-14,6,-19r38,-37v16,-17,45,-2,44,18v0,7,-2,13,-7,18"},"\u00ea":{"d":"371,-574v14,17,-3,45,-23,41v-7,-1,-12,-5,-16,-10r-77,-90r-77,90v-14,18,-44,9,-46,-13v-1,-7,2,-12,7,-18r96,-117v14,-12,29,-14,40,0xm385,-25v0,14,-11,25,-25,25v-67,-2,-135,7,-184,-15v-66,-30,-118,-86,-118,-177v0,-66,-8,-132,14,-181v29,-65,88,-118,179,-118v105,0,190,79,192,191r0,49v0,14,-12,26,-26,26r-308,0v-6,86,29,138,87,164v43,19,106,8,164,11v14,0,25,11,25,25xm391,-276v3,-55,-15,-93,-41,-123v-50,-56,-153,-50,-199,0v-27,29,-46,67,-42,123r282,0"},"\u00eb":{"d":"385,-25v0,14,-11,25,-25,25v-67,-2,-135,7,-184,-15v-66,-30,-118,-86,-118,-177v0,-66,-8,-132,14,-181v29,-65,88,-118,179,-118v105,0,190,79,192,191r0,49v0,14,-12,26,-26,26r-308,0v-6,86,29,138,87,164v43,19,106,8,164,11v14,0,25,11,25,25xm391,-276v3,-55,-15,-93,-41,-123v-50,-56,-153,-50,-199,0v-27,29,-46,67,-42,123r282,0xm134,-552v-14,0,-25,-11,-25,-25v0,-14,11,-26,25,-26v14,0,26,12,26,26v0,14,-12,25,-26,25xm365,-552v-14,0,-25,-11,-25,-25v0,-14,11,-26,25,-26v14,0,26,12,26,26v0,14,-12,25,-26,25"},"\u00ec":{"d":"96,-608v17,15,3,44,-18,44v-7,0,-14,-2,-19,-7r-37,-38v-17,-16,-2,-46,18,-45v7,0,13,3,18,8xm85,-491v14,0,26,11,26,25r0,439v0,15,-11,26,-26,26v-17,0,-25,-9,-25,-26r0,-439v0,-14,11,-25,25,-25","w":179},"\u00ed":{"d":"111,-564v-15,17,-43,3,-43,-18v0,-7,1,-14,6,-19r38,-37v16,-17,45,-2,44,18v0,7,-2,13,-7,18xm85,-491v14,0,26,11,26,25r0,439v0,15,-11,26,-26,26v-17,0,-25,-9,-25,-26r0,-439v0,-14,11,-25,25,-25","w":179},"\u00ee":{"d":"200,-574v14,17,-2,45,-22,41v-7,-1,-13,-5,-17,-10r-77,-90r-77,90v-14,18,-43,9,-45,-13v-1,-7,1,-12,6,-18r96,-117v14,-12,29,-14,40,0xm85,-491v14,0,26,11,26,25r0,439v0,15,-11,26,-26,26v-17,0,-25,-9,-25,-26r0,-439v0,-14,11,-25,25,-25","w":179},"\u00ef":{"d":"85,-491v14,0,26,11,26,25r0,439v0,15,-11,26,-26,26v-17,0,-25,-9,-25,-26r0,-439v0,-14,11,-25,25,-25xm34,-552v-14,0,-25,-11,-25,-25v0,-14,11,-26,25,-26v14,0,26,12,26,26v0,14,-12,25,-26,25xm136,-552v-14,0,-25,-11,-25,-25v0,-14,11,-26,25,-26v14,0,26,12,26,26v0,14,-12,25,-26,25","w":179},"\u00f1":{"d":"127,-453v25,-22,61,-42,107,-42v48,1,92,-4,127,13v54,26,98,73,98,148r0,307v0,15,-12,28,-27,27v-12,0,-26,-14,-25,-27r0,-307v-4,-64,-42,-106,-107,-108v-58,-2,-113,-3,-142,30v-16,18,-31,41,-31,73r0,312v1,14,-13,27,-26,27v-14,0,-25,-13,-25,-27r-1,-309v3,-40,0,-87,1,-129v0,-15,10,-30,25,-30v18,1,29,19,26,42xm182,-571v7,21,-10,40,-30,31v-22,-10,-25,-51,-13,-77v17,-35,69,-61,111,-38v16,9,34,27,39,46v8,30,67,27,67,-7v0,-12,-9,-24,-3,-34v5,-20,39,-18,45,3v20,72,-43,125,-112,97v-19,-8,-33,-24,-41,-45v-6,-13,-21,-25,-41,-18v-14,5,-28,22,-22,42","w":531},"\u00f2":{"d":"275,-608v17,15,2,44,-19,44v-7,0,-13,-2,-18,-7r-37,-38v-17,-16,-1,-46,19,-45v7,0,12,3,17,8xm163,-477v76,-31,166,-5,209,42v30,33,57,77,57,135v0,67,7,134,-15,183v-30,65,-87,117,-178,117v-90,0,-147,-52,-177,-117v-22,-49,-15,-116,-15,-183v0,-89,54,-149,119,-177xm378,-300v-2,-82,-66,-141,-142,-141v-77,0,-140,59,-140,141v0,57,-6,121,11,164v24,61,104,109,183,75v49,-21,88,-64,88,-131r0,-108","w":500},"\u00f3":{"d":"265,-564v-15,17,-43,3,-43,-18v0,-7,1,-14,6,-19r38,-37v16,-17,45,-2,44,18v0,7,-2,13,-7,18xm163,-477v76,-31,166,-5,209,42v30,33,57,77,57,135v0,67,7,134,-15,183v-30,65,-87,117,-178,117v-90,0,-147,-52,-177,-117v-22,-49,-15,-116,-15,-183v0,-89,54,-149,119,-177xm378,-300v-2,-82,-66,-141,-142,-141v-77,0,-140,59,-140,141v0,57,-6,121,11,164v24,61,104,109,183,75v49,-21,88,-64,88,-131r0,-108","w":500},"\u00f4":{"d":"352,-574v14,17,-2,45,-22,41v-7,-1,-13,-5,-17,-10r-77,-90r-77,90v-14,18,-43,9,-45,-13v-1,-7,1,-12,6,-18r96,-117v14,-12,29,-14,40,0xm163,-477v76,-31,166,-5,209,42v30,33,57,77,57,135v0,67,7,134,-15,183v-30,65,-87,117,-178,117v-90,0,-147,-52,-177,-117v-22,-49,-15,-116,-15,-183v0,-89,54,-149,119,-177xm378,-300v-2,-82,-66,-141,-142,-141v-77,0,-140,59,-140,141v0,57,-6,121,11,164v24,61,104,109,183,75v49,-21,88,-64,88,-131r0,-108","w":500},"\u00f5":{"d":"172,-477v76,-31,166,-5,209,42v30,33,57,77,57,135v0,67,7,134,-15,183v-30,65,-87,117,-178,117v-90,0,-147,-52,-177,-117v-22,-49,-15,-116,-15,-183v0,-89,54,-149,119,-177xm387,-300v-2,-82,-66,-141,-142,-141v-77,0,-140,59,-140,141v0,57,-6,121,11,164v24,61,105,109,184,75v49,-21,87,-64,87,-131r0,-108xm163,-569v7,21,-9,40,-29,31v-22,-10,-26,-51,-14,-77v17,-35,69,-61,111,-38v16,9,34,27,39,46v8,30,66,27,66,-7v0,-12,-8,-24,-2,-34v5,-20,39,-18,45,3v20,72,-43,125,-112,97v-19,-8,-33,-24,-41,-45v-6,-13,-21,-25,-41,-18v-14,5,-28,22,-22,42","w":491},"\u00f6":{"d":"163,-477v76,-31,166,-5,209,42v30,33,57,77,57,135v0,67,7,134,-15,183v-30,65,-87,117,-178,117v-90,0,-147,-52,-177,-117v-22,-49,-15,-116,-15,-183v0,-89,54,-149,119,-177xm378,-300v-2,-82,-66,-141,-142,-141v-77,0,-140,59,-140,141v0,57,-6,121,11,164v24,61,104,109,183,75v49,-21,88,-64,88,-131r0,-108xm121,-552v-14,0,-25,-11,-25,-25v0,-14,11,-26,25,-26v14,0,26,12,26,26v0,14,-12,25,-26,25xm352,-552v-14,0,-25,-11,-25,-25v0,-14,11,-26,25,-26v14,0,26,12,26,26v0,14,-12,25,-26,25","w":473},"\u00f7":{"d":"380,-742v6,-23,44,-14,47,4v2,7,2,14,-1,20r-363,705v-5,10,-20,18,-35,12v-10,-4,-18,-21,-11,-35","w":447},"\u00f8":{"d":"178,-480v67,-29,155,-13,197,30v15,-18,28,-57,63,-40v27,29,-14,57,-26,76v45,55,36,131,36,222v-1,59,-25,103,-58,136v-37,37,-82,56,-135,56v-52,0,-92,-20,-123,-44v-15,18,-27,55,-62,40v-25,-29,13,-56,25,-76v-20,-28,-35,-68,-35,-112v0,-67,-7,-135,15,-184v21,-47,56,-84,103,-104xm344,-411v-32,-28,-96,-43,-145,-21v-49,22,-87,64,-87,132v0,62,-9,133,17,174xm163,-83v33,28,95,44,145,21v48,-22,87,-64,87,-130v0,-62,10,-135,-17,-176","w":500},"\u00f9":{"d":"295,-608v17,15,2,44,-19,44v-7,0,-13,-2,-18,-7r-37,-38v-17,-16,-1,-46,19,-45v7,0,12,3,17,8xm414,-491v13,0,26,11,25,25r0,441v1,14,-12,25,-25,25v-21,0,-30,-17,-27,-41v-33,35,-88,44,-158,41v-74,-3,-122,-42,-147,-96v-8,-19,-12,-40,-12,-62r0,-308v-1,-14,12,-25,25,-25v14,0,26,11,26,25r0,308v1,51,31,83,67,100v25,12,57,8,92,8v50,0,81,-29,98,-64v6,-13,9,-26,9,-40r0,-312v0,-14,13,-25,27,-25","w":517},"\u00fa":{"d":"275,-564v-15,17,-43,3,-43,-18v0,-7,1,-14,6,-19r38,-37v16,-17,45,-2,44,18v0,7,-2,13,-7,18xm414,-491v13,0,26,11,25,25r0,441v1,14,-12,25,-25,25v-21,0,-30,-17,-27,-41v-33,35,-88,44,-158,41v-74,-3,-122,-42,-147,-96v-8,-19,-12,-40,-12,-62r0,-308v-1,-14,12,-25,25,-25v14,0,26,11,26,25r0,308v1,51,31,83,67,100v25,12,57,8,92,8v50,0,81,-29,98,-64v6,-13,9,-26,9,-40r0,-312v0,-14,13,-25,27,-25","w":517},"\u00fb":{"d":"378,-574v14,17,-2,45,-22,41v-7,-1,-13,-5,-17,-10r-77,-90r-77,90v-14,18,-43,9,-45,-13v-1,-7,1,-12,6,-18r96,-117v14,-12,29,-14,40,0xm414,-491v13,0,26,11,25,25r0,441v1,14,-12,25,-25,25v-21,0,-30,-17,-27,-41v-33,35,-88,44,-158,41v-74,-3,-122,-42,-147,-96v-8,-19,-12,-40,-12,-62r0,-308v-1,-14,12,-25,25,-25v14,0,26,11,26,25r0,308v1,51,31,83,67,100v25,12,57,8,92,8v50,0,81,-29,98,-64v6,-13,9,-26,9,-40r0,-312v0,-14,13,-25,27,-25","w":517},"\u00fc":{"d":"414,-491v13,0,26,11,25,25r0,441v1,14,-12,25,-25,25v-21,0,-30,-17,-27,-41v-33,35,-88,44,-158,41v-74,-3,-122,-42,-147,-96v-8,-19,-12,-40,-12,-62r0,-308v-1,-14,12,-25,25,-25v14,0,26,11,26,25r0,308v1,51,31,83,67,100v25,12,57,8,92,8v50,0,81,-29,98,-64v6,-13,9,-26,9,-40r0,-312v0,-14,13,-25,27,-25xm146,-552v-14,0,-25,-11,-25,-25v0,-14,11,-26,25,-26v14,0,26,12,26,26v0,14,-12,25,-26,25xm361,-552v-14,0,-25,-11,-25,-25v0,-14,11,-26,25,-26v14,0,26,12,26,26v0,14,-12,25,-26,25","w":517},"\u00fd":{"d":"295,-564v-15,17,-43,3,-43,-18v0,-7,1,-14,6,-19r38,-37v16,-17,45,-2,44,18v0,7,-2,13,-7,18xm423,-477v7,-22,43,-18,47,2v2,7,3,13,0,20r-290,617v-6,20,-44,19,-49,-2v-2,-6,-2,-13,1,-20r104,-220r-185,-374v-10,-21,8,-44,31,-37v6,3,11,7,14,14r168,338","w":490},"\u00ff":{"d":"423,-477v7,-22,43,-18,47,2v2,7,3,13,0,20r-290,617v-6,20,-44,19,-49,-2v-2,-6,-2,-13,1,-20r104,-220r-185,-374v-10,-21,8,-44,31,-37v6,3,11,7,14,14r168,338xm187,-552v-14,0,-25,-11,-25,-25v0,-14,11,-26,25,-26v14,0,26,12,26,26v0,14,-12,25,-26,25xm350,-552v-14,0,-25,-11,-25,-25v0,-14,11,-26,25,-26v14,0,26,12,26,26v0,14,-12,25,-26,25","w":490},"\u0178":{"d":"207,-835v0,-14,11,-25,25,-25v14,0,26,11,26,25v0,14,-12,25,-26,25v-14,0,-25,-11,-25,-25xm367,-835v0,-14,11,-25,25,-25v14,0,26,11,26,25v0,14,-12,25,-26,25v-14,0,-25,-11,-25,-25xm298,0v-14,0,-26,-11,-26,-25r0,-347r-6,-7r-232,-338v-15,-17,2,-46,25,-39v7,1,13,4,17,10r221,320r223,-320v9,-17,46,-12,46,10v0,7,-1,14,-4,19r-238,345r0,347v0,14,-12,25,-26,25","w":593},"\u02c6":{"d":"250,-625v14,17,-2,45,-22,41v-7,-1,-13,-5,-17,-10r-77,-90r-77,90v-14,18,-43,10,-45,-12v-1,-7,1,-13,6,-19r96,-117v14,-12,29,-14,40,0","w":268},"\u2013":{"d":"45,-378v0,-14,13,-25,27,-25r265,0v12,0,25,11,25,25v0,14,-13,25,-25,25r-265,0v-14,0,-27,-11,-27,-25","w":404},"\u2014":{"d":"72,-378v0,-14,13,-25,27,-25r265,0v12,0,25,11,25,25v0,14,-13,25,-25,25r-265,0v-14,0,-27,-11,-27,-25","w":473},"\u2022":{"d":"220,-375v-1,43,-33,73,-73,74v-40,1,-74,-35,-74,-74v0,-39,34,-73,74,-73v38,0,74,35,73,73xm182,-375v1,-18,-17,-35,-35,-35v-19,0,-38,17,-37,35v1,16,15,36,37,35v20,-1,35,-16,35,-35","w":341},"\u2039":{"d":"228,-574v17,-14,45,2,41,22v-1,7,-5,13,-10,17r-186,157r186,157v18,14,9,43,-13,45v-7,1,-12,-1,-18,-6r-213,-176v-12,-14,-13,-29,0,-40","w":303},"\u203a":{"d":"317,-398v9,10,11,31,0,40r-213,176v-16,17,-45,-1,-42,-21v1,-7,5,-13,10,-18r186,-157r-186,-157v-19,-12,-6,-45,14,-44v7,-1,13,1,18,5","w":380},"\u20ac":{"d":"343,-328v0,13,-10,24,-22,24r-147,0v1,75,42,121,96,146v60,28,135,4,168,-30v16,-15,45,-5,44,18v0,7,-2,13,-7,18v-45,52,-145,78,-225,42v-72,-32,-125,-94,-127,-194r-39,0v-13,0,-25,-11,-25,-24v1,-26,36,-21,64,-21r0,-65v-28,0,-64,5,-64,-22v0,-29,35,-24,64,-24v2,-99,55,-163,127,-195v50,-21,111,-22,160,0v25,11,47,27,67,46v16,15,4,44,-18,43v-7,0,-13,-2,-18,-7v-36,-39,-109,-63,-171,-35v-54,25,-95,72,-96,148r147,0v13,0,23,10,22,24v0,13,-10,22,-22,22r-147,0r0,65r147,0v12,0,22,9,22,21","w":549},"\u2122":{"d":"212,-743v0,-15,27,-16,38,-8r51,73r47,-73v11,-6,42,-9,42,8r0,174v1,7,-7,13,-13,13v-9,0,-13,-4,-13,-13r0,-158r-49,80v-8,2,-17,4,-24,0r-53,-80r0,158v0,9,-4,13,-13,13v-6,0,-14,-6,-13,-13r0,-174xm191,-743v-1,23,-38,9,-59,13r0,161v0,9,-4,13,-12,13v-8,0,-12,-4,-12,-13r0,-161r-48,0v-7,0,-10,-4,-10,-13v0,-8,3,-12,10,-12r119,0v7,0,12,4,12,12","w":447}}});
